/*!
 * The following copyright notice may not be removed under any circumstances.
 * 
 * Copyright:
 * Copyright 1990-2003 Bitstream Inc. All rights reserved.
 */
Cufon.registerFont({"w":1024,"face":{"font-family":"Swis721 Hv BT","font-weight":400,"font-stretch":"normal","units-per-em":"2048","panose-1":"2 11 8 4 2 2 2 2 2 4","ascent":"1556","descent":"-492","x-height":"27","bbox":"-342 -1972 2773 485.042","underline-thickness":"244","underline-position":"-97","unicode-range":"U+0020-U+F002"},"glyphs":{" ":{"w":604},"!":{"d":"248,-477r-84,-586r0,-410r368,0r0,410r-86,586r-198,0xm166,0r0,-352r369,0r0,352r-369,0","w":698},"\"":{"d":"416,-1438r223,0r0,561r-223,0r0,-561xm76,-1438r219,0r0,561r-219,0r0,-561","w":713},"#":{"d":"707,-842r-82,232r245,0r82,-232r-245,0xm684,-1466r250,0r-139,393r235,0r141,-393r250,0r-139,393r270,0r-86,231r-268,0r-80,230r277,0r-84,231r-275,0r-141,393r-250,0r139,-393r-235,0r-141,393r-250,0r139,-393r-274,0r86,-231r270,0r82,-230r-283,0r86,-231r279,0","w":1575},"$":{"d":"545,-1179v-79,3,-135,46,-135,124v0,88,56,111,135,146r0,-270xm670,-228v78,-7,139,-58,139,-139v0,-97,-59,-135,-139,-170r0,309xm1145,-383v-2,254,-215,405,-475,418r0,196r-125,0r0,-196v-316,-8,-483,-158,-489,-471r321,0v3,133,46,199,168,209r0,-353v-159,-49,-275,-109,-348,-180v-73,-71,-109,-161,-109,-268v1,-258,193,-398,457,-408r0,-116r125,0r0,116v273,2,447,148,450,414r-319,0v0,-97,-41,-153,-131,-157r0,315v174,61,297,127,368,200v71,73,107,166,107,281","w":1208},"%":{"d":"1444,-530v-89,0,-164,74,-164,163v0,88,76,162,164,162v87,0,162,-74,162,-162v0,-88,-75,-163,-162,-163xm1444,41v-221,0,-408,-187,-408,-408v0,-220,188,-407,408,-407v220,0,407,187,407,407v0,221,-186,408,-407,408xm442,41r844,-1493r180,0r-843,1493r-181,0xm465,-1208v-90,0,-164,74,-164,164v0,87,76,161,164,161v87,0,162,-74,162,-161v0,-88,-75,-164,-162,-164xm465,-637v-220,0,-408,-187,-408,-407v0,-221,187,-408,408,-408v221,0,407,187,407,408v0,220,-187,407,-407,407","w":1909},"&":{"d":"694,-1276v-94,0,-145,82,-108,166v20,47,71,96,102,139v69,-52,121,-94,125,-188v3,-70,-48,-117,-119,-117xm416,-408v-7,135,155,227,286,156v33,-18,70,-41,107,-74r-227,-292v-90,58,-160,100,-166,210xm537,55v-259,5,-465,-184,-465,-438v0,-95,27,-179,82,-253v55,-74,142,-141,260,-202v-71,-92,-128,-178,-131,-311v-5,-210,185,-352,405,-352v221,0,392,124,389,334v-3,196,-106,303,-250,385r177,223v35,-58,55,-122,65,-207r292,0v-13,181,-82,325,-177,438r254,328r-375,0r-84,-111v-113,99,-250,162,-442,166","w":1464},"'":{"d":"76,-1438r219,0r0,561r-219,0r0,-561","w":371},"(":{"d":"522,-526v0,391,115,683,279,954r-260,0v-125,-165,-217,-325,-277,-481v-60,-156,-90,-312,-90,-469v0,-404,160,-695,369,-951r250,0v-160,276,-271,559,-271,947","w":811},")":{"d":"264,-1473v209,259,371,545,371,951v0,156,-30,312,-91,468v-61,156,-153,316,-278,482r-260,0v165,-273,279,-561,279,-954v0,-386,-112,-673,-271,-947r250,0","w":811},"*":{"d":"512,-854r-172,252r-195,-137r197,-240r-279,-76r72,-223r266,94r0,-289r222,0r0,289r266,-94r72,223r-279,76r195,240r-193,137"},"+":{"d":"735,-1221r238,0r0,494r479,0r0,231r-479,0r0,496r-238,0r0,-496r-481,0r0,-231r481,0r0,-494","w":1706},",":{"d":"115,219v122,-31,198,-81,198,-219r-192,0r0,-352r368,0r0,256v0,270,-127,412,-374,438r0,-123","w":604},"-":{"d":"96,-395r0,-297r512,0r0,297r-512,0","w":707,"k":{"Y":149,"X":73,"W":112,"V":112,"T":73}},".":{"d":"117,0r0,-352r370,0r0,352r-370,0","w":604},"\/":{"d":"164,190r-162,0r510,-1701r164,0","w":678},"0":{"d":"464,-1078v-52,129,-53,617,0,740v31,73,75,111,140,111v65,0,109,-38,141,-111v54,-124,49,-609,0,-735v-55,-143,-225,-145,-281,-5xm57,-707v0,-249,46,-435,137,-559v91,-124,227,-186,410,-186v183,0,321,62,412,186v91,124,137,310,137,559v0,249,-46,436,-137,560v-91,124,-229,186,-412,186v-183,0,-319,-62,-410,-186v-91,-124,-137,-311,-137,-560","w":1208},"1":{"d":"190,-1153v241,4,387,-53,406,-260r281,0r0,1413r-357,0r0,-928r-330,0r0,-225","w":1208},"2":{"d":"598,-1454v295,0,533,176,528,457v-4,196,-81,285,-200,403v-66,66,-330,231,-387,309r575,0r0,285r-1055,0v24,-336,203,-488,437,-644v115,-77,182,-121,241,-216v79,-128,24,-328,-141,-320v-141,7,-190,108,-190,265r-332,-1v-2,-319,207,-538,524,-538","w":1208},"3":{"d":"1141,-420v1,300,-242,461,-561,461v-324,0,-523,-170,-525,-485r340,0v2,133,68,210,201,211v112,1,194,-75,192,-185v-1,-152,-117,-197,-286,-192r0,-240v153,4,257,-39,258,-178v1,-100,-63,-165,-162,-164v-127,1,-183,70,-192,195r-328,-1v7,-299,212,-454,528,-454v272,0,492,134,492,385v0,149,-72,233,-172,303v131,56,214,167,215,344","w":1208},"4":{"d":"662,-537r0,-557r-361,557r361,0xm653,0r0,-285r-604,0r0,-276r549,-852r403,0r0,868r152,0r0,260r-152,0r0,285r-348,0","w":1208},"5":{"d":"586,-692v-88,0,-140,33,-178,88r-312,-14r101,-797r882,0r0,282r-645,0r-37,277v62,-63,152,-95,275,-96v280,-2,461,194,461,477v0,328,-230,514,-568,514v-312,0,-498,-151,-518,-438r346,0v6,101,73,164,180,163v134,0,197,-86,197,-225v0,-134,-59,-231,-184,-231","w":1208},"6":{"d":"432,-451v0,136,62,232,189,232v125,0,186,-99,186,-234v0,-135,-60,-229,-186,-229v-129,0,-189,94,-189,231xm68,-690v0,-444,184,-759,594,-764v254,-3,435,148,452,381r-321,0v-23,-77,-63,-125,-154,-125v-63,0,-113,29,-150,88v-37,59,-59,147,-67,264v71,-58,153,-98,268,-100v281,-3,455,183,455,467v0,320,-202,528,-522,524v-390,-5,-555,-308,-555,-735","w":1208},"7":{"d":"1135,-1130v-269,300,-460,648,-494,1130r-399,0v10,-186,59,-372,148,-559v89,-187,217,-372,384,-557r-715,0r0,-297r1076,0r0,283","w":1208},"8":{"d":"604,-627v-121,0,-196,80,-196,203v0,123,73,201,196,201v122,0,197,-78,197,-201v0,-123,-76,-203,-197,-203xm604,-1200v-104,0,-170,65,-170,168v0,102,68,168,170,168v104,0,170,-65,170,-168v0,-103,-66,-168,-170,-168xm57,-420v0,-189,90,-291,238,-346v-119,-52,-195,-137,-195,-295v0,-268,213,-389,504,-389v292,0,504,120,504,389v0,158,-74,243,-193,295v149,55,236,156,236,346v0,308,-221,459,-547,459v-327,0,-547,-150,-547,-459","w":1208},"9":{"d":"772,-961v0,-134,-62,-229,-188,-229v-126,0,-187,97,-187,232v0,135,60,229,187,229v130,0,188,-94,188,-232xm582,-1454v390,5,555,306,555,733v0,243,-52,431,-156,564v-104,133,-250,200,-438,200v-256,0,-434,-147,-453,-381r322,0v22,78,61,127,151,127v64,0,114,-30,151,-90v37,-60,60,-148,68,-264v-70,58,-153,98,-268,100v-280,2,-455,-184,-455,-467v0,-321,202,-526,523,-522","w":1208},":":{"d":"141,-688r0,-352r369,0r0,352r-369,0xm141,0r0,-352r369,0r0,352r-369,0","w":651},";":{"d":"143,-688r0,-352r371,0r0,352r-371,0xm137,219v122,-33,200,-81,201,-219r-195,0r0,-352r371,0r0,256v0,270,-129,412,-377,438r0,-123","w":651},"<":{"d":"1442,-1214r0,253r-854,351r854,348r0,254r-1178,-486r0,-233","w":1706},"=":{"d":"254,-502r1198,0r0,230r-1198,0r0,-230xm254,-950r1198,0r0,231r-1198,0r0,-231","w":1706},">":{"d":"264,-1214r1178,487r0,233r-1178,486r0,-254r854,-348r-854,-351r0,-253","w":1706},"?":{"d":"434,0r0,-352r369,0r0,352r-369,0xm608,-1505v301,0,552,148,555,422v1,179,-91,273,-196,358v-117,95,-175,182,-179,256r-339,0v-2,-143,50,-269,129,-334r59,-48v112,-89,168,-163,168,-222v-1,-101,-86,-153,-195,-152v-130,1,-199,82,-194,219r-357,0v12,-326,208,-499,549,-499","w":1223},"@":{"d":"1382,-102v-131,2,-212,-45,-221,-160v-68,98,-145,157,-295,158v-220,2,-331,-122,-331,-345v0,-299,206,-571,491,-567v113,1,183,47,229,123r52,-92r206,0r-153,610v-12,50,4,92,59,92v198,0,344,-258,344,-479v0,-334,-293,-546,-647,-541v-374,5,-614,175,-743,421v-57,109,-84,228,-84,356v-3,414,317,667,747,661v243,-3,443,-76,596,-186r97,135v-185,139,-399,231,-693,233v-432,3,-735,-192,-877,-475v-95,-191,-103,-468,-24,-682v142,-383,475,-647,983,-651v380,-3,657,172,783,421v89,177,90,433,1,613v-91,184,-249,351,-520,355xm778,-444v0,100,41,174,133,174v127,0,208,-103,236,-217r51,-209v-11,-94,-61,-156,-160,-156v-156,0,-260,225,-260,408","w":2048},"A":{"d":"565,-575r322,0r-164,-508xm530,-1473r412,0r520,1473r-405,0r-90,-270r-492,0r-84,270r-391,0","w":1462,"k":{"\u201d":206,"y":26,"w":26,"v":26,"Y":120,"W":36,"V":36,"U":36,"T":73,";":-38,":":-38,".":-38,",":-38}},"B":{"d":"999,-1040v0,-97,-69,-137,-174,-136r-319,0r0,279r303,0v117,0,190,-37,190,-143xm1034,-457v0,-116,-80,-161,-205,-161r-323,0r0,325r285,0v159,-2,243,-25,243,-164xm1141,-780v157,39,264,147,264,331v0,249,-152,401,-382,433v-223,31,-610,12,-878,16r0,-1473r715,0v312,1,502,92,502,377v0,175,-84,264,-221,316","w":1493,"k":{"Y":73,"W":36,"V":36,"-":-38}},"C":{"d":"803,-274v173,2,275,-89,299,-242r350,0v-45,338,-277,557,-649,557v-433,0,-719,-324,-719,-766v0,-462,287,-784,741,-784v353,0,603,204,631,526r-354,0v-33,-136,-125,-213,-289,-213v-232,0,-342,210,-342,467v0,258,98,452,332,455","w":1526,"k":{"\u201d":-75,"S":-38,";":-38,":":-38,"-":-47}},"D":{"d":"1067,-735v0,-274,-83,-421,-338,-426r-205,0r0,852r205,0v254,-4,338,-154,338,-426xm1450,-735v-2,490,-237,735,-725,735r-580,0r0,-1473r629,0v447,0,678,278,676,738","w":1534,"k":{"\u00c5":16,"Y":28,"W":-18,"V":16,"A":16,".":73,"-":-38,",":73}},"E":{"d":"145,0r0,-1473r1119,0r0,302r-742,0r0,260r678,0r0,295r-678,0r0,315r766,0r0,301r-1143,0","w":1368,"k":{"-":36}},"F":{"d":"147,0r0,-1473r1057,0r0,306r-682,0r0,305r592,0r0,305r-592,0r0,557r-375,0","w":1249,"k":{"\u201d":-38,"\u0153":45,"\u00f8":45,"\u00e6":45,"\u00c5":83,"u":45,"r":36,"o":45,"e":45,"a":45,"T":-38,"A":83,";":73,":":73,".":311,"-":36,",":311}},"G":{"d":"465,-733v0,259,124,465,362,467v178,1,301,-99,326,-254r-328,0r0,-283r664,0r0,803r-236,0r-30,-190v-102,142,-239,229,-465,229v-334,0,-532,-197,-626,-450v-35,-93,-50,-197,-50,-308v0,-467,297,-797,756,-797v351,0,587,192,641,494r-361,0v-44,-118,-138,-192,-291,-192v-235,0,-362,223,-362,481","w":1618,"k":{"Y":45,"W":26,"T":36}},"H":{"d":"145,0r0,-1473r379,0r0,523r516,0r0,-523r379,0r0,1473r-379,0r0,-621r-516,0r0,621r-379,0","w":1565},"I":{"d":"154,0r0,-1473r376,0r0,1473r-376,0","w":684},"J":{"d":"543,37v-372,4,-520,-221,-500,-610r350,0r0,98v1,136,29,211,152,211v56,0,95,-19,117,-57v22,-38,32,-113,32,-224r0,-928r369,0r0,916v-3,410,-128,590,-520,594","w":1200,"k":{".":16,",":16}},"K":{"d":"145,0r0,-1473r371,0r0,562r524,-562r453,0r-596,619r610,854r-450,0r-414,-590r-127,127r0,463r-371,0","w":1495,"k":{"\u0153":36,"\u0152":55,"\u00f8":36,"\u00d8":55,"\u00c5":16,"y":55,"u":36,"o":36,"e":36,"Y":92,"W":36,"U":73,"O":55,"C":55,"A":16,".":-38,"-":92,",":-38}},"L":{"d":"154,0r0,-1473r378,0r0,1154r713,0r0,319r-1091,0","w":1255,"k":{"\u201d":452,"\u0152":73,"\u00d8":73,"y":36,"Y":235,"W":63,"V":159,"U":36,"T":167,"O":73,".":-57,"-":55,",":-57}},"M":{"d":"145,0r0,-1473r519,0r194,717v17,63,33,124,47,184v14,60,26,118,37,175v13,-60,25,-124,43,-189r238,-887r518,0r0,1473r-344,0r0,-653v0,-46,1,-110,3,-193v2,-83,6,-179,11,-288r-283,1134r-374,0r-277,-1134v5,131,8,248,11,352v3,104,4,186,4,245r0,537r-347,0","w":1888},"N":{"d":"143,0r0,-1473r408,0r278,484r129,234v41,77,79,154,115,229v-5,-111,-9,-216,-12,-313v-3,-97,-4,-183,-4,-257r0,-377r364,0r0,1473r-407,0r-289,-498r-111,-198r-127,-236v7,96,13,185,16,268v3,83,5,156,5,220r0,444r-365,0","w":1567,"k":{";":36,":":36}},"O":{"d":"821,-1200v-250,0,-354,193,-354,465v0,273,104,465,354,465v250,0,357,-192,357,-465v0,-272,-106,-465,-357,-465xm821,41v-457,0,-737,-311,-737,-776v0,-465,280,-776,737,-776v457,0,742,312,742,776v0,464,-285,776,-742,776","w":1645,"k":{"Y":36,"X":36,".":55,"-":-38,",":55}},"P":{"d":"973,-1001v0,-124,-74,-175,-203,-175r-246,0r0,353r250,0v131,0,199,-51,199,-178xm1343,-1012v1,318,-189,488,-512,486r-307,0r0,526r-379,0r0,-1473r674,0v325,-2,523,149,524,461","w":1411,"k":{"\u201d":-38,"\u0153":26,"\u00f8":26,"\u00e6":55,"\u00c5":120,"y":-28,"u":-18,"s":26,"o":26,"e":26,"a":55,"Y":16,"W":-18,"A":120,".":405,"-":83,",":405}},"Q":{"d":"467,-735v0,299,131,503,429,458v24,-4,46,-11,66,-20r-151,-160r178,-170r144,152v29,-73,45,-158,45,-258v2,-275,-105,-467,-357,-467v-250,0,-354,193,-354,465xm1563,-737v-2,229,-61,405,-170,530r159,168r-176,170r-174,-180v-104,56,-224,89,-377,90v-458,4,-741,-311,-741,-776v0,-465,280,-776,737,-776v456,0,746,311,742,774","w":1645,"k":{".":36,"-":-38,",":36}},"R":{"d":"1020,-1018v0,-119,-81,-160,-211,-160r-291,0r0,336r281,0v142,-1,221,-43,221,-176xm1393,-1063v0,190,-91,290,-232,361v142,59,173,120,183,324v2,30,4,70,6,121v5,119,25,187,61,206r0,51r-395,0v-35,-61,-33,-310,-41,-385v-12,-117,-75,-166,-205,-166r-252,0r0,551r-375,0r0,-1473r705,0v341,1,545,99,545,410","w":1503,"k":{"y":-18,".":-28,",":-28}},"S":{"d":"1319,-424v0,325,-280,467,-641,465v-382,-2,-581,-172,-604,-530r362,0v6,170,101,253,279,253v153,0,285,-69,226,-208v-8,-19,-24,-32,-42,-41v-78,-39,-377,-120,-471,-160v-180,-76,-324,-188,-324,-408v0,-303,260,-460,588,-460v331,0,578,173,578,485r-355,0v-16,-137,-94,-199,-247,-201v-103,-1,-205,44,-205,133v0,65,90,128,271,185v157,49,402,141,440,176v81,74,145,168,145,311","w":1397,"k":{"S":-38,"-":-38}},"T":{"d":"440,0r0,-1174r-422,0r0,-299r1221,0r0,299r-422,0r0,1174r-377,0","w":1260,"k":{"\u0153":225,"\u00f8":225,"\u00e6":225,"\u00c5":73,"y":178,"w":178,"u":139,"s":206,"r":167,"o":225,"i":26,"e":225,"c":225,"a":225,"T":-47,"A":73,";":243,":":243,".":272,"-":272,",":272}},"U":{"d":"754,-272v186,0,245,-87,245,-281r0,-920r375,0r0,875v-1,238,-36,370,-155,481v-109,102,-259,158,-463,158v-298,0,-505,-123,-584,-345v-26,-73,-37,-172,-37,-294r0,-875r371,0r0,920v2,195,60,281,248,281","w":1509,"k":{"\u00c5":36,"A":36,".":73,",":73}},"V":{"d":"481,0r-506,-1473r400,0r224,819v25,91,45,167,58,228r289,-1047r397,0r-509,1473r-353,0","w":1321,"k":{"\u201d":-18,"\u0153":102,"\u00f8":102,"\u00e6":102,"\u00c5":36,"u":63,"o":102,"i":26,"e":102,"a":102,"A":36,";":83,":":83,".":264,"-":149,",":264}},"W":{"d":"393,0r-403,-1473r379,0r206,1045r197,-1045r402,0r194,1045r207,-1045r379,0r-406,1473r-368,0r-209,-1059r-209,1059r-369,0","w":1944,"k":{"\u0153":63,"\u00f8":63,"\u00e6":63,"\u00c5":36,"r":26,"o":63,"e":63,"a":63,"A":36,";":55,":":55,".":167,"-":73,",":167}},"X":{"d":"-14,0r475,-756r-449,-717r430,0r226,394r225,-394r430,0r-453,717r480,756r-435,0r-247,-428r-250,428r-432,0","w":1335,"k":{"\u0152":36,"\u00d8":36,"e":55,"O":36,"C":36,";":36,":":36,".":-38,"-":131,",":-38}},"Y":{"d":"489,0r0,-555r-509,-918r423,0r271,594r270,-594r426,0r-514,918r0,555r-367,0","w":1350,"k":{"\u201d":-28,"\u0153":188,"\u0152":36,"\u00f8":188,"\u00e6":188,"\u00d8":36,"\u00c5":120,"u":149,"o":188,"e":188,"a":188,"O":36,"C":36,"A":120,";":206,":":206,".":339,"-":272,",":339}},"Z":{"d":"61,0r0,-295r752,-881r-723,0r0,-297r1190,0r0,297r-752,881r752,0r0,295r-1219,0","w":1331,"k":{".":-38,"-":55,",":-38}},"[":{"d":"819,430r-586,0r0,-1903r586,0r0,250r-254,0r0,1403r254,0r0,250","w":838},"\\":{"d":"676,190r-162,0r-512,-1701r164,0","w":678},"]":{"d":"33,430r0,-250r254,0r0,-1403r-254,0r0,-250r585,0r0,1903r-585,0","w":838},"^":{"d":"879,-1462r288,0r465,563r-264,0r-344,-342r-346,342r-264,0","w":2048},"_":{"d":"0,244r1024,0r0,239r-1024,0r0,-239"},"`":{"d":"207,-1587r287,0r192,368r-154,0"},"a":{"d":"537,-197v117,0,206,-76,206,-190r0,-125v-57,44,-261,53,-311,111v-17,19,-26,44,-26,75v-1,77,54,129,131,129xm1081,-213v1,82,9,145,54,172r0,41r-363,0v-8,-35,-14,-73,-19,-112v-89,88,-187,144,-345,147v-203,3,-342,-122,-340,-320v2,-199,113,-294,288,-338v83,-21,398,-50,387,-127v8,-93,-49,-122,-141,-122v-99,0,-161,40,-176,122r-328,0v37,-255,212,-365,512,-364v243,1,414,68,455,262v33,154,13,444,16,639","w":1194},"b":{"d":"686,-254v153,0,211,-129,211,-301v0,-157,-64,-287,-205,-287v-148,0,-213,124,-213,287v0,174,52,301,207,301xm807,31v-160,0,-250,-68,-322,-174r0,143r-356,0r0,-1473r354,0r0,523v65,-103,171,-170,328,-170v284,0,455,272,455,581v0,311,-170,570,-459,570","w":1327},"c":{"d":"614,-246v104,0,150,-62,168,-157r351,0v-33,270,-229,438,-531,438v-325,0,-539,-237,-539,-567v0,-356,210,-594,558,-594v292,0,493,158,514,424r-359,0v-18,-90,-62,-152,-158,-152v-146,0,-188,139,-188,311v1,172,37,297,184,297","w":1184},"d":{"d":"522,-1120v156,0,263,67,328,170r0,-523r354,0r0,1473r-356,0r0,-143v-72,106,-161,173,-322,174v-289,2,-458,-260,-458,-570v0,-310,169,-581,454,-581xm643,-842v-141,0,-207,130,-207,287v0,172,57,301,211,301v154,0,207,-127,207,-301v0,-164,-62,-287,-211,-287","w":1327},"e":{"d":"823,-660v-1,-132,-73,-224,-202,-223v-129,1,-192,94,-203,224xm623,-223v98,0,158,-43,182,-119r342,0v-59,230,-253,375,-537,375v-339,0,-547,-228,-547,-572v0,-347,208,-585,547,-585v372,0,581,266,553,665r-735,0v-1,144,59,235,195,236","w":1223},"f":{"d":"662,-1243v-119,-3,-126,59,-125,182r176,0r0,219r-176,0r0,842r-357,0r0,-842r-155,0r0,-219r155,0r-2,-72v3,-262,111,-350,379,-352r156,7r-1,237v-15,-2,-29,-2,-50,-2","w":731,"k":{"\u201d":-47,".":36,"-":36,",":36}},"g":{"d":"524,-1116v171,1,265,66,344,174r0,-145r334,0r0,897v-3,222,3,309,-65,423v-82,138,-256,205,-480,205v-308,-1,-491,-91,-530,-346r356,0v20,68,75,96,164,96v164,0,207,-65,209,-237r0,-115v-71,107,-171,173,-336,174v-282,2,-454,-255,-454,-557v0,-310,169,-570,458,-569xm645,-840v-151,0,-211,123,-211,291v0,155,65,279,205,279v147,0,213,-120,213,-279v0,-170,-54,-291,-207,-291","w":1325},"h":{"d":"659,-844v-144,0,-180,100,-180,262r0,582r-354,0r0,-1473r356,0r0,527v76,-106,168,-169,334,-170v231,-2,350,133,350,368r0,748r-356,0r0,-547v0,-128,-11,-210,-32,-245v-21,-35,-61,-52,-118,-52","w":1280},"i":{"d":"125,-1186r0,-287r354,0r0,287r-354,0xm125,0r0,-1087r354,0r0,1087r-354,0","w":604},"j":{"d":"137,-1186r0,-287r357,0r0,287r-357,0xm-25,160v141,-1,161,-34,162,-189r0,-1058r357,0r0,1003v0,162,-11,270,-28,326v-52,171,-253,214,-490,192","w":621},"k":{"d":"125,0r0,-1473r350,0r0,760r328,-374r418,0r-377,415r387,672r-395,0r-230,-430r-131,137r0,293r-350,0","w":1239,"k":{"-":73}},"l":{"d":"123,0r0,-1473r356,0r0,1473r-356,0","w":604},"m":{"d":"641,-844v-134,0,-167,108,-168,262r0,582r-348,0r0,-1087r342,0r0,149v67,-109,161,-176,324,-176v163,0,261,61,313,176v65,-108,165,-176,326,-176v240,0,355,138,354,385r0,729r-348,0r0,-621v-2,-148,-25,-223,-156,-223v-134,0,-167,108,-168,262r0,582r-315,0r0,-621v-2,-148,-25,-223,-156,-223","w":1898},"n":{"d":"659,-844v-144,0,-180,100,-180,262r0,582r-354,0r0,-1087r348,0r0,149v69,-109,165,-176,330,-176v268,0,362,129,362,407r0,707r-356,0r0,-547v0,-128,-11,-210,-32,-245v-21,-35,-61,-52,-118,-52","w":1280},"o":{"d":"639,-852v-154,0,-211,134,-211,307v0,174,57,309,211,309v154,0,213,-136,213,-309v0,-173,-59,-307,-213,-307xm639,37v-361,0,-576,-221,-576,-582v0,-360,218,-581,576,-581v359,0,578,221,578,581v0,360,-219,582,-578,582","w":1280},"p":{"d":"811,35v-156,0,-263,-69,-328,-170r0,571r-354,0r0,-1523r356,0r0,145v72,-106,161,-173,322,-174v288,-2,459,260,459,569v0,310,-170,582,-455,582xm692,-246v141,0,205,-128,205,-284v0,-173,-57,-301,-211,-301v-155,0,-207,126,-207,301v0,164,64,284,213,284","w":1327},"q":{"d":"520,-1116v160,0,250,68,322,174r0,-145r358,0r0,1523r-356,0r0,-571v-65,102,-172,170,-328,170v-285,0,-453,-272,-453,-582v0,-311,168,-569,457,-569xm641,-831v-154,0,-211,128,-211,301v0,157,65,284,207,284v148,0,211,-121,211,-284v0,-175,-52,-301,-207,-301","w":1327},"r":{"d":"825,-762v-181,-22,-322,21,-337,192v-12,143,-7,398,-9,570r-354,0r0,-1087r342,0r0,190v72,-139,165,-212,358,-217r0,352","w":864,"k":{"\u201d":-65,".":188,",":188}},"s":{"d":"1133,-342v0,262,-231,377,-523,377v-295,0,-512,-114,-536,-367r356,0v9,101,77,144,191,144v86,0,161,-32,161,-107v0,-42,-56,-78,-168,-106v-164,-40,-354,-112,-424,-181v-49,-49,-75,-111,-75,-190v3,-241,209,-354,473,-354v285,0,479,84,508,321r-342,0v-15,-75,-67,-108,-158,-108v-76,-1,-133,26,-133,94v0,43,58,80,174,111v28,7,50,13,65,18v160,49,227,57,316,115v74,49,115,119,115,233","w":1202},"t":{"d":"694,2v-68,13,-138,23,-213,23v-123,0,-206,-32,-253,-91v-92,-118,-63,-555,-68,-806r-146,0r0,-215r146,0r0,-308r356,0r0,308r182,0r0,215r-182,0r0,471v3,131,15,174,133,178r45,-2r0,227","w":737,"k":{"-":-18}},"u":{"d":"623,-244v144,0,178,-99,178,-262r0,-581r356,0r0,1087r-348,0r0,-150v-76,107,-167,176,-330,177v-241,2,-362,-126,-362,-367r0,-747r356,0r0,608v3,155,17,235,150,235","w":1280},"v":{"d":"391,0r-403,-1087r377,0r208,757r211,-757r375,0r-403,1087r-365,0","w":1145,"k":{".":112,",":112}},"w":{"d":"328,0r-322,-1087r363,0r155,747r131,-747r367,0r135,747r156,-747r362,0r-321,1087r-367,0r-145,-717r-154,717r-360,0","w":1683,"k":{".":131,",":131}},"x":{"d":"-25,0r383,-567r-368,-520r420,0r149,260r154,-260r415,0r-368,520r385,567r-416,0r-172,-299r-168,299r-414,0","w":1114,"k":{"-":73}},"y":{"d":"231,162v115,-2,167,-13,172,-111v2,-24,-24,-100,-53,-176r-366,-962r383,0r204,741r209,-741r379,0r-434,1208v-37,101,-67,172,-94,211v-78,114,-168,110,-375,112r-94,0r0,-282r69,0","w":1151,"k":{".":131,",":131}},"z":{"d":"39,0r0,-262r541,-569r-506,0r0,-256r950,0r0,256r-537,569r555,0r0,262r-1003,0","w":1081},"{":{"d":"430,-1340v57,-139,259,-142,463,-137r0,242r-41,-2v-139,3,-166,37,-166,182r0,240v-2,192,-52,248,-211,285v161,36,211,88,211,282r0,242v-6,161,54,186,207,178r0,242v-204,6,-405,2,-463,-136v-37,-89,-24,-310,-24,-448v0,-186,-71,-252,-254,-240r0,-241v180,12,254,-57,254,-242v0,-140,-13,-356,24,-447"},"|":{"d":"393,-1565r240,0r0,2048r-240,0r0,-2048"},"}":{"d":"180,-1237r-47,2r0,-242v204,-5,404,-2,463,137v37,89,25,308,25,447v0,187,70,254,253,242r0,241v-181,-12,-253,55,-253,240v0,141,13,359,-25,450v-58,138,-259,140,-463,134r0,-242r43,2v139,-3,164,-35,164,-180r0,-242v2,-192,51,-246,211,-282v-161,-37,-211,-90,-211,-285r0,-240v-3,-143,-25,-178,-160,-182"},"~":{"d":"1159,-668v157,0,254,-68,371,-151r0,254v-147,113,-376,177,-587,95v-168,-65,-297,-89,-382,-89v-162,0,-259,73,-383,158r0,-254v121,-77,229,-137,387,-144v196,-8,427,131,594,131","w":1706},"\u00c4":{"d":"565,-575r322,0r-164,-508xm530,-1473r412,0r520,1473r-405,0r-90,-270r-492,0r-84,270r-391,0xm800,-1653r0,-270r252,0r0,270r-252,0xm438,-1653r0,-270r250,0r0,270r-250,0","w":1462},"\u00c5":{"d":"737,-1817v-58,0,-106,49,-106,107v0,59,47,106,106,106v58,0,107,-48,107,-106v0,-57,-50,-107,-107,-107xm735,-1448v-144,0,-260,-118,-260,-262v0,-144,116,-262,260,-262v142,0,262,121,262,262v0,143,-119,262,-262,262xm565,-575r322,0r-164,-508xm506,-1401r463,0r493,1401r-405,0r-90,-270r-492,0r-84,270r-391,0","w":1462,"k":{"\u201d":206,"y":26,"w":26,"v":26,"Y":120,"W":36,"V":36,"U":36,"T":73,":":-38,".":-38}},"\u00c7":{"d":"803,-274v173,2,275,-89,299,-242r350,0v-45,338,-277,557,-649,557v-433,0,-719,-324,-719,-766v0,-462,287,-784,741,-784v353,0,603,204,631,526r-354,0v-33,-136,-125,-213,-289,-213v-232,0,-342,210,-342,467v0,258,98,452,332,455xm831,485v-103,-2,-194,-21,-291,-47r0,-137v87,24,177,45,271,45v54,0,86,-20,86,-72v0,-70,-98,-64,-174,-61r0,-213r114,0r0,84v149,-5,248,54,248,192v0,142,-103,211,-254,209","w":1526},"\u00c9":{"d":"145,0r0,-1473r1119,0r0,302r-742,0r0,260r678,0r0,295r-678,0r0,315r766,0r0,301r-1143,0xm1007,-1972r-325,368r-154,0r192,-368r287,0","w":1368},"\u00d1":{"d":"143,0r0,-1473r408,0r278,484r129,234v41,77,79,154,115,229v-5,-111,-9,-216,-12,-313v-3,-97,-4,-183,-4,-257r0,-377r364,0r0,1473r-407,0r-289,-498r-111,-198r-127,-236v7,96,13,185,16,268v3,83,5,156,5,220r0,444r-365,0xm871,-1851v74,23,135,-10,145,-78r119,0v-20,88,-48,152,-82,193v-48,58,-130,72,-214,50v-52,-14,-100,-38,-159,-38v-53,0,-73,32,-90,77r-119,0v35,-149,89,-263,258,-242v49,6,97,24,142,38","w":1567},"\u00d6":{"d":"821,-1200v-250,0,-354,193,-354,465v0,273,104,465,354,465v250,0,357,-192,357,-465v0,-272,-106,-465,-357,-465xm821,41v-457,0,-737,-311,-737,-776v0,-465,280,-776,737,-776v457,0,742,312,742,776v0,464,-285,776,-742,776xm878,-1653r0,-270r252,0r0,270r-252,0xm516,-1653r0,-270r250,0r0,270r-250,0","w":1645},"\u00dc":{"d":"754,-272v186,0,245,-87,245,-281r0,-920r375,0r0,875v-1,238,-36,370,-155,481v-109,102,-259,158,-463,158v-298,0,-505,-123,-584,-345v-26,-73,-37,-172,-37,-294r0,-875r371,0r0,920v2,195,60,281,248,281xm811,-1653r0,-270r252,0r0,270r-252,0xm449,-1653r0,-270r250,0r0,270r-250,0","w":1509},"\u00e1":{"d":"537,-197v117,0,206,-76,206,-190r0,-125v-57,44,-261,53,-311,111v-17,19,-26,44,-26,75v-1,77,54,129,131,129xm1081,-213v1,82,9,145,54,172r0,41r-363,0v-8,-35,-14,-73,-19,-112v-89,88,-187,144,-345,147v-203,3,-342,-122,-340,-320v2,-199,113,-294,288,-338v83,-21,398,-50,387,-127v8,-93,-49,-122,-141,-122v-99,0,-161,40,-176,122r-328,0v37,-255,212,-365,512,-364v243,1,414,68,455,262v33,154,13,444,16,639xm903,-1587r-325,368r-154,0r192,-368r287,0","w":1194},"\u00e0":{"d":"537,-197v117,0,206,-76,206,-190r0,-125v-57,44,-261,53,-311,111v-17,19,-26,44,-26,75v-1,77,54,129,131,129xm1081,-213v1,82,9,145,54,172r0,41r-363,0v-8,-35,-14,-73,-19,-112v-89,88,-187,144,-345,147v-203,3,-342,-122,-340,-320v2,-199,113,-294,288,-338v83,-21,398,-50,387,-127v8,-93,-49,-122,-141,-122v-99,0,-161,40,-176,122r-328,0v37,-255,212,-365,512,-364v243,1,414,68,455,262v33,154,13,444,16,639xm293,-1587r287,0r192,368r-154,0","w":1194},"\u00e2":{"d":"537,-197v117,0,206,-76,206,-190r0,-125v-57,44,-261,53,-311,111v-17,19,-26,44,-26,75v-1,77,54,129,131,129xm1081,-213v1,82,9,145,54,172r0,41r-363,0v-8,-35,-14,-73,-19,-112v-89,88,-187,144,-345,147v-203,3,-342,-122,-340,-320v2,-199,113,-294,288,-338v83,-21,398,-50,387,-127v8,-93,-49,-122,-141,-122v-99,0,-161,40,-176,122r-328,0v37,-255,212,-365,512,-364v243,1,414,68,455,262v33,154,13,444,16,639xm276,-1219r193,-368r256,0r192,368r-153,0r-166,-198r-168,198r-154,0","w":1194},"\u00e4":{"d":"537,-197v117,0,206,-76,206,-190r0,-125v-57,44,-261,53,-311,111v-17,19,-26,44,-26,75v-1,77,54,129,131,129xm1081,-213v1,82,9,145,54,172r0,41r-363,0v-8,-35,-14,-73,-19,-112v-89,88,-187,144,-345,147v-203,3,-342,-122,-340,-320v2,-199,113,-294,288,-338v83,-21,398,-50,387,-127v8,-93,-49,-122,-141,-122v-99,0,-161,40,-176,122r-328,0v37,-255,212,-365,512,-364v243,1,414,68,455,262v33,154,13,444,16,639xm653,-1268r0,-270r252,0r0,270r-252,0xm291,-1268r0,-270r250,0r0,270r-250,0","w":1194},"\u00e3":{"d":"537,-197v117,0,206,-76,206,-190r0,-125v-57,44,-261,53,-311,111v-17,19,-26,44,-26,75v-1,77,54,129,131,129xm1081,-213v1,82,9,145,54,172r0,41r-363,0v-8,-35,-14,-73,-19,-112v-89,88,-187,144,-345,147v-203,3,-342,-122,-340,-320v2,-199,113,-294,288,-338v83,-21,398,-50,387,-127v8,-93,-49,-122,-141,-122v-99,0,-161,40,-176,122r-328,0v37,-255,212,-365,512,-364v243,1,414,68,455,262v33,154,13,444,16,639xm666,-1466v74,23,135,-10,145,-78r119,0v-20,88,-48,152,-82,193v-48,58,-130,72,-214,50v-52,-14,-100,-38,-159,-38v-53,0,-73,32,-90,77r-119,0v35,-149,89,-263,258,-242v49,6,97,24,142,38","w":1194},"\u00e5":{"d":"594,-1532v-59,0,-107,49,-107,107v0,59,47,106,107,106v57,0,106,-49,106,-106v0,-57,-49,-107,-106,-107xm594,-1163v-144,0,-262,-116,-262,-260v0,-144,118,-263,262,-263v142,0,262,122,262,263v0,142,-119,260,-262,260xm1081,-213v1,82,9,145,54,172r0,41r-363,0v-8,-35,-14,-73,-19,-112v-89,88,-187,144,-345,147v-203,3,-342,-122,-340,-320v2,-199,113,-294,288,-338v83,-21,398,-50,387,-127v8,-93,-49,-122,-141,-122v-99,0,-161,40,-176,122r-328,0v37,-255,212,-365,512,-364v243,1,414,68,455,262v33,154,13,444,16,639xm537,-197v117,0,206,-76,206,-190r0,-125v-57,44,-261,53,-311,111v-17,19,-26,44,-26,75v-1,77,54,129,131,129","w":1194},"\u00e7":{"d":"614,-246v104,0,150,-62,168,-157r351,0v-33,270,-229,438,-531,438v-325,0,-539,-237,-539,-567v0,-356,210,-594,558,-594v292,0,493,158,514,424r-359,0v-18,-90,-62,-152,-158,-152v-146,0,-188,139,-188,311v1,172,37,297,184,297xm657,485v-103,-2,-194,-21,-291,-47r0,-137v87,24,177,45,271,45v54,0,86,-20,86,-72v0,-70,-98,-64,-174,-61r0,-213r114,0r0,84v149,-5,248,54,248,192v0,142,-103,211,-254,209","w":1184},"\u00e9":{"d":"823,-660v-1,-132,-73,-224,-202,-223v-129,1,-192,94,-203,224xm623,-223v98,0,158,-43,182,-119r342,0v-59,230,-253,375,-537,375v-339,0,-547,-228,-547,-572v0,-347,208,-585,547,-585v372,0,581,266,553,665r-735,0v-1,144,59,235,195,236xm917,-1587r-325,368r-154,0r192,-368r287,0","w":1223},"\u00e8":{"d":"823,-660v-1,-132,-73,-224,-202,-223v-129,1,-192,94,-203,224xm623,-223v98,0,158,-43,182,-119r342,0v-59,230,-253,375,-537,375v-339,0,-547,-228,-547,-572v0,-347,208,-585,547,-585v372,0,581,266,553,665r-735,0v-1,144,59,235,195,236xm307,-1587r287,0r192,368r-154,0","w":1223},"\u00ea":{"d":"823,-660v-1,-132,-73,-224,-202,-223v-129,1,-192,94,-203,224xm623,-223v98,0,158,-43,182,-119r342,0v-59,230,-253,375,-537,375v-339,0,-547,-228,-547,-572v0,-347,208,-585,547,-585v372,0,581,266,553,665r-735,0v-1,144,59,235,195,236xm290,-1219r193,-368r256,0r192,368r-153,0r-166,-198r-168,198r-154,0","w":1223},"\u00eb":{"d":"823,-660v-1,-132,-73,-224,-202,-223v-129,1,-192,94,-203,224xm623,-223v98,0,158,-43,182,-119r342,0v-59,230,-253,375,-537,375v-339,0,-547,-228,-547,-572v0,-347,208,-585,547,-585v372,0,581,266,553,665r-735,0v-1,144,59,235,195,236xm667,-1268r0,-270r252,0r0,270r-252,0xm305,-1268r0,-270r250,0r0,270r-250,0","w":1223},"\u00ed":{"d":"125,0r0,-1087r354,0r0,1087r-354,0xm608,-1587r-325,368r-154,0r192,-368r287,0","w":604},"\u00ec":{"d":"125,0r0,-1087r354,0r0,1087r-354,0xm-2,-1587r287,0r192,368r-154,0","w":604},"\u00ee":{"d":"125,0r0,-1087r354,0r0,1087r-354,0xm-19,-1219r193,-368r256,0r192,368r-153,0r-166,-198r-168,198r-154,0","w":604},"\u00ef":{"d":"125,0r0,-1087r354,0r0,1087r-354,0xm358,-1268r0,-270r252,0r0,270r-252,0xm-4,-1268r0,-270r250,0r0,270r-250,0","w":604},"\u00f1":{"d":"659,-844v-144,0,-180,100,-180,262r0,582r-354,0r0,-1087r348,0r0,149v69,-109,165,-176,330,-176v268,0,362,129,362,407r0,707r-356,0r0,-547v0,-128,-11,-210,-32,-245v-21,-35,-61,-52,-118,-52xm709,-1466v74,23,135,-10,145,-78r119,0v-20,88,-48,152,-82,193v-48,58,-130,72,-214,50v-52,-14,-100,-38,-159,-38v-53,0,-73,32,-90,77r-119,0v35,-149,89,-263,258,-242v49,6,97,24,142,38","w":1280},"\u00f3":{"d":"639,-852v-154,0,-211,134,-211,307v0,174,57,309,211,309v154,0,213,-136,213,-309v0,-173,-59,-307,-213,-307xm639,37v-361,0,-576,-221,-576,-582v0,-360,218,-581,576,-581v359,0,578,221,578,581v0,360,-219,582,-578,582xm946,-1587r-325,368r-154,0r192,-368r287,0","w":1280},"\u00f2":{"d":"639,-852v-154,0,-211,134,-211,307v0,174,57,309,211,309v154,0,213,-136,213,-309v0,-173,-59,-307,-213,-307xm639,37v-361,0,-576,-221,-576,-582v0,-360,218,-581,576,-581v359,0,578,221,578,581v0,360,-219,582,-578,582xm336,-1587r287,0r192,368r-154,0","w":1280},"\u00f4":{"d":"639,-852v-154,0,-211,134,-211,307v0,174,57,309,211,309v154,0,213,-136,213,-309v0,-173,-59,-307,-213,-307xm639,37v-361,0,-576,-221,-576,-582v0,-360,218,-581,576,-581v359,0,578,221,578,581v0,360,-219,582,-578,582xm319,-1219r193,-368r256,0r192,368r-153,0r-166,-198r-168,198r-154,0","w":1280},"\u00f6":{"d":"639,-852v-154,0,-211,134,-211,307v0,174,57,309,211,309v154,0,213,-136,213,-309v0,-173,-59,-307,-213,-307xm639,37v-361,0,-576,-221,-576,-582v0,-360,218,-581,576,-581v359,0,578,221,578,581v0,360,-219,582,-578,582xm696,-1268r0,-270r252,0r0,270r-252,0xm334,-1268r0,-270r250,0r0,270r-250,0","w":1280},"\u00f5":{"d":"639,-852v-154,0,-211,134,-211,307v0,174,57,309,211,309v154,0,213,-136,213,-309v0,-173,-59,-307,-213,-307xm639,37v-361,0,-576,-221,-576,-582v0,-360,218,-581,576,-581v359,0,578,221,578,581v0,360,-219,582,-578,582xm709,-1466v74,23,135,-10,145,-78r119,0v-20,88,-48,152,-82,193v-48,58,-130,72,-214,50v-52,-14,-100,-38,-159,-38v-53,0,-73,32,-90,77r-119,0v35,-149,89,-263,258,-242v49,6,97,24,142,38","w":1280},"\u00fa":{"d":"623,-244v144,0,178,-99,178,-262r0,-581r356,0r0,1087r-348,0r0,-150v-76,107,-167,176,-330,177v-241,2,-362,-126,-362,-367r0,-747r356,0r0,608v3,155,17,235,150,235xm946,-1587r-325,368r-154,0r192,-368r287,0","w":1280},"\u00f9":{"d":"623,-244v144,0,178,-99,178,-262r0,-581r356,0r0,1087r-348,0r0,-150v-76,107,-167,176,-330,177v-241,2,-362,-126,-362,-367r0,-747r356,0r0,608v3,155,17,235,150,235xm336,-1587r287,0r192,368r-154,0","w":1280},"\u00fb":{"d":"623,-244v144,0,178,-99,178,-262r0,-581r356,0r0,1087r-348,0r0,-150v-76,107,-167,176,-330,177v-241,2,-362,-126,-362,-367r0,-747r356,0r0,608v3,155,17,235,150,235xm319,-1219r193,-368r256,0r192,368r-153,0r-166,-198r-168,198r-154,0","w":1280},"\u00fc":{"d":"623,-244v144,0,178,-99,178,-262r0,-581r356,0r0,1087r-348,0r0,-150v-76,107,-167,176,-330,177v-241,2,-362,-126,-362,-367r0,-747r356,0r0,608v3,155,17,235,150,235xm696,-1268r0,-270r252,0r0,270r-252,0xm334,-1268r0,-270r250,0r0,270r-250,0","w":1280},"\u2020":{"d":"367,217r0,-1051r-322,0r0,-227r322,0r0,-412r288,0r0,412r324,0r0,227r-324,0r0,1051r-288,0"},"\u00b0":{"d":"502,-1157v0,-88,-76,-164,-164,-164v-89,0,-166,75,-166,164v0,91,75,166,166,166v88,0,164,-78,164,-166xm27,-1155v0,-170,142,-311,311,-311v167,0,311,144,311,311v0,167,-145,311,-313,311v-168,0,-309,-143,-309,-311","w":674},"\u00a2":{"d":"1128,-403v-26,308,-306,498,-653,421r-86,254r-117,0r97,-284v-189,-81,-305,-262,-308,-523v-5,-390,271,-655,674,-579r72,-223r121,0r-82,250v164,61,266,178,280,378r-340,0v-6,-35,-18,-64,-36,-88r-185,547v123,27,201,-40,211,-153r352,0xm647,-852v-215,-31,-240,229,-207,432v6,38,18,70,33,96","w":1208},"\u00a3":{"d":"467,-47v-107,7,-199,39,-281,84r-131,-236v146,-83,259,-210,199,-415r-180,0r0,-146r114,0v-49,-88,-90,-175,-90,-291v0,-265,234,-399,523,-399v326,0,507,166,528,473r-326,0v-18,-128,-74,-212,-205,-215v-92,-2,-172,65,-172,154v0,43,65,206,95,278r264,0r0,146r-229,0v18,188,-79,276,-195,381v71,-36,146,-58,240,-62v54,-2,207,42,253,41v75,-2,128,-26,185,-59r110,250v-86,55,-184,95,-305,100v-72,3,-316,-89,-397,-84","w":1208},"\u00a7":{"d":"383,-817v-52,26,-98,60,-98,123v0,45,69,96,206,154v60,25,108,46,144,63v51,-23,98,-57,98,-119v0,-43,-57,-88,-170,-137v-75,-32,-135,-60,-180,-84xm942,-119v0,222,-175,334,-412,334v-270,0,-438,-117,-444,-370r285,0v3,93,59,155,153,155v96,0,165,-105,94,-169v-46,-42,-214,-96,-296,-130v-169,-69,-302,-156,-302,-354v0,-140,83,-228,191,-275v-67,-56,-119,-132,-119,-241v0,-232,173,-342,420,-342v244,0,408,131,418,360r-293,0v1,-84,-50,-145,-131,-145v-65,0,-121,35,-121,94v0,87,73,103,160,145v204,97,454,152,454,424v0,137,-71,246,-184,268v75,58,127,129,127,246"},"\u2022":{"d":"602,-465v-160,0,-295,-138,-295,-297v0,-160,138,-295,297,-295v158,0,295,137,295,295v0,158,-139,297,-297,297","w":1208},"\u00b6":{"d":"29,-1130v0,-216,165,-349,389,-349r579,0r0,123r-106,0r0,1356r-176,0r0,-1356r-150,0r0,1356r-174,0r0,-784v-207,-4,-362,-140,-362,-346"},"\u00df":{"d":"799,-1063v1,-83,-63,-139,-148,-139v-65,0,-111,21,-136,64v-25,43,-38,130,-38,261r0,877r-352,0r0,-838v2,-253,9,-345,102,-475v82,-115,232,-176,428,-176v279,0,504,132,504,387v0,152,-78,249,-192,299v150,60,237,191,241,393v6,334,-250,492,-598,434r1,-315v135,13,233,-32,231,-162v-2,-127,-93,-164,-232,-161r0,-283v118,2,189,-53,189,-166","w":1270,"k":{".":-18,",":-18}},"\u00ae":{"d":"989,-909v0,-113,-107,-116,-227,-113r0,219v114,3,227,2,227,-106xm1221,-926v0,118,-75,193,-174,221r182,361r-248,0r-154,-326r-65,0r0,326r-225,0r0,-819r329,0v203,0,355,58,355,237xm1092,-1303v-143,-63,-326,-64,-470,-3v-211,89,-378,281,-378,569v0,286,169,470,373,562v145,65,319,65,467,3v211,-89,380,-274,380,-565v0,-289,-167,-475,-372,-566xm571,-1432v178,-72,400,-72,575,4v253,110,453,339,453,691v0,356,-209,581,-466,691v-180,77,-390,74,-568,-2v-177,-75,-329,-232,-403,-410v-75,-181,-73,-390,3,-569v75,-177,227,-332,406,-405","w":1706},"\u00a9":{"d":"446,-731v0,-264,154,-451,410,-451v198,0,355,111,365,291r-213,0v-8,-86,-63,-143,-156,-141v-131,4,-176,138,-176,293v0,162,45,284,186,284v94,0,146,-63,152,-155r215,0v-6,193,-164,317,-371,317v-256,0,-412,-176,-412,-438xm1090,-1304v-143,-63,-328,-62,-471,0v-207,91,-377,283,-377,567v0,283,173,473,380,563v147,64,319,64,466,0v209,-90,376,-271,376,-563v0,-289,-167,-477,-374,-567xm566,-1430v175,-76,401,-75,576,1v255,110,457,337,457,692v0,356,-205,579,-460,689v-180,78,-392,80,-571,1v-254,-111,-462,-339,-462,-690v0,-346,207,-583,460,-693","w":1706},"\u2122":{"d":"797,-1464r223,0r113,303r114,-303r221,0r0,551r-155,0r0,-390r-146,390r-65,0r-150,-390r0,390r-155,0r0,-551xm188,-1464r502,0r0,127r-164,0r0,424r-174,0r0,-424r-164,0r0,-127","w":1706},"\u00b4":{"d":"817,-1587r-325,368r-154,0r192,-368r287,0"},"\u00a8":{"d":"567,-1268r0,-270r252,0r0,270r-252,0xm205,-1268r0,-270r250,0r0,270r-250,0"},"\u2260":{"d":"1194,-1251r168,137r-135,168r225,0r0,221r-377,0r-180,227r557,0r0,222r-704,0r-246,307r-170,-137r135,-170r-213,0r0,-222r360,0r183,-227r-543,0r0,-221r694,0","w":1706},"\u00c6":{"d":"854,0r0,-281r-405,0r-99,281r-375,0r603,-1473r1359,0r0,299r-741,0r0,265r676,0r0,293r-676,0r0,315r764,0r0,301r-1106,0xm553,-571r301,0r0,-603r-74,0","w":2046,"k":{"-":36}},"\u00d8":{"d":"825,-270v249,0,355,-194,353,-465v0,-119,-20,-222,-60,-301r-530,678v56,53,134,88,237,88xm825,-1200v-253,0,-360,190,-358,465v0,105,16,206,49,274r522,-669v-56,-44,-120,-70,-213,-70xm823,41v-185,-1,-334,-46,-444,-127r-154,197r-98,-76r158,-201v-128,-140,-198,-314,-201,-569v-5,-467,282,-780,741,-776v173,0,312,41,420,112r146,-190r98,76r-148,190v140,136,219,325,222,588v5,463,-284,779,-740,776","w":1645,"k":{"Y":36,"X":36,".":55,"-":-38}},"\u221e":{"d":"1393,-606v0,-100,-80,-180,-179,-178v-48,0,-92,16,-132,50v-40,34,-81,92,-126,173v50,78,120,133,234,135v113,3,203,-72,203,-180xm315,-612v0,101,79,178,179,178v47,0,91,-17,132,-52v41,-35,83,-92,126,-171v-51,-79,-118,-132,-234,-134v-113,-2,-203,71,-203,179xm1513,-610v0,225,-111,422,-315,424v-61,0,-116,-18,-166,-55v-50,-37,-109,-104,-176,-201v-45,87,-95,151,-148,193v-53,42,-111,63,-176,63v-197,1,-337,-208,-337,-422v0,-224,111,-420,315,-422v60,0,115,18,166,56v51,38,110,105,176,200v47,-88,97,-153,150,-195v53,-42,111,-63,174,-63v198,-1,337,206,337,422","w":1706},"\u00b1":{"d":"254,-213r1198,0r0,231r-1198,0r0,-231xm735,-1241r238,0r0,319r479,0r0,232r-479,0r0,319r-238,0r0,-319r-481,0r0,-232r481,0r0,-319","w":1706},"\u2264":{"d":"256,-213r1196,0r0,229r-1196,0r0,-229xm1450,-1257r0,239r-776,240r776,239r0,240r-1194,-379r0,-201","w":1706},"\u2265":{"d":"256,-213r1196,0r0,229r-1196,0r0,-229xm258,-1257r1192,378r0,201r-1192,379r0,-240r776,-239r-776,-240r0,-239","w":1706},"\u00a5":{"d":"489,0r0,-532r-469,0r0,-146r390,0r-70,-129r-320,0r0,-143r238,0r-258,-463r406,0r260,569r260,-569r409,0r-262,463r238,0r0,143r-320,0r-76,129r396,0r0,146r-469,0r0,532r-353,0","w":1337},"\u00b5":{"d":"573,16v-91,0,-150,-53,-184,-120r-82,532r-352,0r238,-1518r358,0r-80,529v-7,47,-12,95,-12,143v0,107,41,169,143,170v59,0,104,-22,138,-68v34,-46,59,-120,75,-221r88,-553r357,0r-175,1090r-321,0r18,-125v-47,86,-95,141,-209,141","w":1315},"\u2202":{"d":"477,-860v153,2,229,67,289,176v22,-118,41,-243,43,-356v2,-90,-31,-209,-98,-209v-23,0,-67,31,-132,93v-65,62,-125,93,-180,93v-63,0,-115,-53,-112,-117v4,-109,178,-185,313,-182v306,7,455,267,455,602v0,229,-55,417,-163,564v-108,147,-247,221,-417,221v-239,0,-416,-177,-416,-416v0,-254,174,-472,418,-469xm332,-287v0,131,32,236,143,236v65,0,118,-45,160,-135v42,-90,63,-206,63,-346v0,-128,-33,-238,-141,-238v-64,0,-118,45,-161,136v-43,91,-64,207,-64,347","w":1114},"\u2211":{"d":"72,-1473r1335,0r0,302r-838,0r596,608r-587,651r895,0r0,305r-1424,0r0,-184r684,-756r-661,-665r0,-261","w":1520},"\u220f":{"d":"145,-1473r1348,0r0,1866r-399,0r0,-1532r-549,0r0,1532r-400,0r0,-1866","w":1645},"\u03c0":{"d":"6,-725v49,-274,126,-365,436,-365r1096,0r-39,232r-178,0r-135,858r-357,0r134,-858r-232,0r-135,858r-354,0r133,-858v-90,-9,-123,55,-134,133r-235,0","w":1530},"\u222b":{"d":"330,178v-1,33,-6,70,32,70v66,0,110,-222,119,-667v8,-368,48,-740,135,-907v79,-152,192,-230,349,-230v128,0,234,71,235,190v1,84,-62,144,-147,143v-90,-1,-129,-57,-129,-151v0,-41,-1,-60,-33,-60v-67,0,-109,222,-124,667r-3,91v-15,354,-11,500,-88,717v-66,187,-173,325,-389,332v-131,4,-236,-68,-236,-191v-1,-88,64,-143,154,-143v83,0,128,54,125,139","w":1249},"\u00aa":{"d":"403,-848v86,0,154,-51,154,-133r0,-88v-56,45,-252,18,-252,131v0,55,42,90,98,90xm811,-860v0,58,7,104,41,121r0,28r-272,0v-7,-23,-10,-54,-15,-80v-68,64,-141,103,-260,105v-147,2,-256,-82,-254,-223v2,-205,172,-238,367,-265v93,-14,139,-34,139,-61v0,-67,-38,-86,-104,-86v-75,0,-122,26,-134,86r-245,0v30,-184,163,-257,385,-256v175,1,308,45,340,183v25,106,9,311,12,448","w":895},"\u00ba":{"d":"479,-1307v-112,0,-157,91,-157,215v0,125,44,215,157,215v113,0,160,-91,160,-215v0,-124,-47,-215,-160,-215xm479,-684v-263,0,-432,-149,-432,-408v0,-258,169,-407,432,-407v264,0,434,149,434,407v0,259,-170,408,-434,408","w":961},"\u03a9":{"d":"1534,-836v-3,247,-110,417,-268,529r333,0r0,307r-636,0r0,-352v111,-98,190,-248,192,-443v3,-227,-119,-395,-334,-395v-214,-1,-337,171,-334,397v2,193,80,346,193,441r0,352r-635,0r0,-307r332,0v-158,-113,-265,-281,-268,-529v-5,-406,299,-675,712,-675v417,0,718,266,713,675","w":1645},"\u00e6":{"d":"1462,-660v0,-131,-72,-220,-200,-219v-130,1,-192,91,-203,220xm537,-197v117,0,206,-76,206,-190r0,-125v-57,44,-261,53,-311,111v-17,19,-26,44,-26,75v-1,77,54,129,131,129xm1249,35v-200,-1,-331,-72,-418,-195v-133,113,-228,189,-423,195v-202,6,-342,-122,-340,-320v2,-198,116,-295,288,-340v79,-21,387,-48,387,-118v0,-99,-47,-136,-141,-136v-97,-1,-162,45,-176,127r-328,0v38,-253,213,-368,510,-368v150,0,255,34,330,108v72,-70,174,-108,313,-108v372,-1,579,263,551,661r-735,0v-1,144,59,235,195,236v98,0,158,-43,182,-119r344,0v-59,232,-254,377,-539,377","w":1864},"\u00f8":{"d":"639,37v-171,-1,-287,-41,-385,-119r-141,145r-72,-75r141,-150v-76,-93,-115,-221,-116,-387v-2,-359,217,-580,575,-577v158,1,274,38,369,108r153,-162r76,76r-154,160v83,100,128,225,129,399v3,361,-214,585,-575,582xm647,-225v193,1,249,-246,201,-447r-367,371v36,47,88,75,166,76xm639,-862v-203,-4,-251,240,-209,448r373,-366v-36,-49,-87,-81,-164,-82","w":1280},"\u00bf":{"d":"801,-1468r0,352r-371,0r0,-352r371,0xm627,37v-301,0,-555,-148,-557,-422v-1,-179,87,-267,193,-354v119,-97,178,-186,181,-260r340,0v2,143,-50,268,-129,333r-62,51v-111,89,-167,162,-167,220v1,100,88,151,197,151v131,0,201,-81,196,-219r354,0v-11,326,-205,500,-546,500","w":1223},"\u00a1":{"d":"451,-993r84,583r0,410r-369,0r0,-410r86,-583r199,0xm535,-1473r0,355r-369,0r0,-355r369,0","w":698},"\u00ac":{"d":"254,-866r1198,0r0,501r-229,0r0,-274r-969,0r0,-227","w":1706},"\u221a":{"d":"1155,-1714r215,0r0,149r-96,0r-590,1606r-119,0r-307,-846r-145,55r-37,-129r360,-127r223,635","w":1366},"\u0192":{"d":"1042,-1235v-74,-24,-144,-31,-181,33v-20,34,-39,108,-58,225r227,0r0,232r-278,0r-134,610v-53,231,-61,308,-143,436v-83,129,-345,163,-518,92r49,-231v31,9,59,14,94,16v65,4,120,-111,158,-295r131,-628r-217,0r0,-232r270,0v34,-201,88,-337,150,-416v93,-118,332,-140,504,-82","w":1208},"\u2248":{"d":"1159,-451v160,-9,248,-67,371,-151r0,254v-117,77,-217,129,-377,137v-116,6,-466,-141,-592,-131v-162,13,-255,72,-383,158r0,-254v125,-81,234,-132,404,-144v124,-9,468,137,577,131xm1159,-885v159,-9,249,-68,371,-151r0,254v-119,76,-216,127,-375,135v-117,6,-466,-139,-594,-129v-166,13,-251,70,-383,158r0,-256v126,-81,232,-130,404,-142v124,-9,468,137,577,131","w":1706},"\u2206":{"d":"733,-1059r-262,774r526,0xm537,-1473r395,0r541,1473r-1475,0","w":1468},"\u00ab":{"d":"946,-160r-379,-237r0,-299r379,-234r0,258r-207,127r207,127r0,258xm446,-160r-376,-237r0,-299r376,-234r0,258r-206,127r206,127r0,258","w":1022},"\u00bb":{"d":"575,-160r0,-258r205,-127r-205,-127r0,-258r377,234r0,299xm76,-160r0,-258r207,-127r-207,-127r0,-258r377,234r0,299","w":1022},"\u2026":{"d":"156,0r0,-352r370,0r0,352r-370,0xm838,0r0,-352r370,0r0,352r-370,0xm1522,0r0,-352r370,0r0,352r-370,0","w":2048},"\u00a0":{"w":1208},"\u00c0":{"d":"565,-575r322,0r-164,-508xm530,-1473r412,0r520,1473r-405,0r-90,-270r-492,0r-84,270r-391,0xm440,-1972r287,0r192,368r-154,0","w":1462},"\u00c3":{"d":"565,-575r322,0r-164,-508xm530,-1473r412,0r520,1473r-405,0r-90,-270r-492,0r-84,270r-391,0xm813,-1851v74,23,135,-10,145,-78r119,0v-20,88,-48,152,-82,193v-48,58,-130,72,-214,50v-52,-14,-100,-38,-159,-38v-53,0,-73,32,-90,77r-119,0v35,-149,89,-263,258,-242v49,6,97,24,142,38","w":1462},"\u00d5":{"d":"821,-1200v-250,0,-354,193,-354,465v0,273,104,465,354,465v250,0,357,-192,357,-465v0,-272,-106,-465,-357,-465xm821,41v-457,0,-737,-311,-737,-776v0,-465,280,-776,737,-776v457,0,742,312,742,776v0,464,-285,776,-742,776xm891,-1851v74,23,135,-10,145,-78r119,0v-20,88,-48,152,-82,193v-48,58,-130,72,-214,50v-52,-14,-100,-38,-159,-38v-53,0,-73,32,-90,77r-119,0v35,-149,89,-263,258,-242v49,6,97,24,142,38","w":1645},"\u0152":{"d":"754,-1505v171,1,272,47,366,135r0,-103r1098,0r0,302r-741,0r0,260r677,0r0,295r-677,0r0,315r766,0r0,301r-1123,0r0,-102v-92,89,-200,138,-370,139v-405,2,-654,-350,-654,-780v0,-421,258,-765,658,-762xm823,-268v129,0,212,-63,277,-146r0,-647v-77,-82,-142,-141,-275,-141v-255,0,-358,189,-358,467v0,273,106,467,356,467","w":2322,"k":{"-":36}},"\u0153":{"d":"1386,35v-163,0,-289,-46,-370,-131v-93,82,-224,130,-393,131v-346,3,-560,-231,-560,-580v0,-360,217,-582,576,-579v164,1,289,50,379,131v90,-79,198,-130,354,-131v373,-2,579,266,551,665r-735,0v-1,144,58,231,194,232v99,0,159,-39,183,-115r344,0v-56,222,-252,378,-523,377xm639,-852v-154,0,-211,134,-211,307v0,175,57,314,211,314v153,0,213,-141,213,-314v0,-173,-59,-307,-213,-307xm1583,-660v-1,-132,-72,-224,-201,-223v-128,1,-191,95,-202,224","w":1985},"\u2013":{"d":"0,-422r0,-244r1024,0r0,244r-1024,0"},"\u2014":{"d":"0,-666r2048,0r0,244r-2048,0r0,-244","w":2048},"\u201c":{"d":"991,-1389v-122,33,-200,81,-200,220r194,0r0,352r-371,0r0,-256v0,-271,129,-412,377,-438r0,122xm467,-1389v-122,34,-201,81,-201,220r195,0r0,352r-371,0r0,-256v0,-271,129,-412,377,-438r0,122","w":1081,"k":{"\u00c6":188,"\u00c5":206,"J":452,"A":206}},"\u201d":{"d":"614,-899v121,-31,199,-82,199,-219r-192,0r0,-355r370,0r0,259v0,270,-129,412,-377,438r0,-123xm90,-899v121,-31,199,-82,199,-219r-193,0r0,-355r371,0r0,259v0,270,-129,412,-377,438r0,-123","w":1081},"\u2018":{"d":"467,-1389v-122,34,-201,81,-201,220r195,0r0,352r-371,0r0,-256v0,-271,129,-412,377,-438r0,122","w":557},"\u2019":{"d":"90,-899v121,-31,199,-82,199,-219r-193,0r0,-355r371,0r0,259v0,270,-129,412,-377,438r0,-123","w":557},"\u00f7":{"d":"688,-205v0,-88,78,-166,166,-166v89,0,164,77,164,166v0,89,-75,164,-164,164v-89,0,-166,-75,-166,-164xm254,-727r1198,0r0,231r-1198,0r0,-231xm688,-1016v0,-88,78,-166,166,-166v87,0,164,78,164,166v0,89,-77,164,-166,164v-89,0,-164,-75,-164,-164","w":1706},"\u25ca":{"d":"506,-1409r-385,817r385,825r385,-825xm506,-1653r500,1061r-500,1069r-500,-1069","w":1012},"\u00ff":{"d":"231,162v115,-2,167,-13,172,-111v2,-24,-24,-100,-53,-176r-366,-962r383,0r204,741r209,-741r379,0r-434,1208v-37,101,-67,172,-94,211v-78,114,-168,110,-375,112r-94,0r0,-282r69,0xm630,-1268r0,-270r252,0r0,270r-252,0xm268,-1268r0,-270r250,0r0,270r-250,0","w":1151},"\u0178":{"d":"489,0r0,-555r-509,-918r423,0r271,594r270,-594r426,0r-514,918r0,555r-367,0xm731,-1653r0,-270r252,0r0,270r-252,0xm369,-1653r0,-270r250,0r0,270r-250,0","w":1350},"\u2215":{"d":"-342,0r848,-1452r182,0r-848,1452r-182,0","w":342},"\u00a4":{"d":"877,-1016v-16,-104,-59,-168,-168,-168v-135,0,-170,120,-185,269r410,0r-43,131r-375,0r-2,131r332,0r-43,131r-281,0v5,104,22,180,50,226v28,46,71,69,128,69v113,-2,166,-78,177,-189r331,0v-43,281,-213,455,-522,455v-330,0,-483,-236,-522,-561r-176,0r45,-131r119,0r1,-131r-155,0r43,-131r125,0v44,-329,198,-537,543,-537v291,0,469,172,505,436r-337,0","w":1208},"\u2039":{"d":"446,-160r-376,-237r0,-299r376,-234r0,258r-206,127r206,127r0,258","w":522},"\u203a":{"d":"76,-930r377,240r0,297r-377,233r0,-258r207,-127r-207,-125r0,-260","w":522},"\uf001":{"d":"860,-1186r0,-287r357,0r0,287r-357,0xm860,0r0,-1087r357,0r0,1087r-357,0xm664,-1243v-111,-4,-135,48,-127,156r176,0r0,221r-176,0r0,866r-357,0r0,-866r-155,0r0,-221r155,-1v-2,-21,-2,-33,-2,-61v4,-261,132,-336,410,-338r124,4r0,242v-15,-2,-28,-2,-48,-2","w":1337},"\ufb01":{"d":"860,-1186r0,-287r357,0r0,287r-357,0xm860,0r0,-1087r357,0r0,1087r-357,0xm664,-1243v-111,-4,-135,48,-127,156r176,0r0,221r-176,0r0,866r-357,0r0,-866r-155,0r0,-221r155,-1v-2,-21,-2,-33,-2,-61v4,-261,132,-336,410,-338r124,4r0,242v-15,-2,-28,-2,-48,-2","w":1337},"\uf002":{"d":"860,0r0,-1473r357,0r0,1473r-357,0xm664,-1243v-111,-4,-135,48,-127,156r176,0r0,221r-176,0r0,866r-357,0r0,-866r-155,0r0,-221r155,-1v-2,-21,-2,-33,-2,-61v4,-261,132,-336,410,-338r124,4r0,242v-15,-2,-28,-2,-48,-2","w":1337},"\ufb02":{"d":"860,0r0,-1473r357,0r0,1473r-357,0xm664,-1243v-111,-4,-135,48,-127,156r176,0r0,221r-176,0r0,866r-357,0r0,-866r-155,0r0,-221r155,-1v-2,-21,-2,-33,-2,-61v4,-261,132,-336,410,-338r124,4r0,242v-15,-2,-28,-2,-48,-2","w":1337},"\u2021":{"d":"367,217r0,-360r-322,0r0,-228r322,0r0,-514r-322,0r0,-227r322,0r0,-361r288,0r0,361r324,0r0,227r-324,0r0,514r324,0r0,228r-324,0r0,360r-288,0"},"\u00b7":{"d":"301,-520v-102,0,-184,-85,-184,-187v0,-101,82,-186,184,-186v101,0,186,85,186,186v0,102,-84,187,-186,187","w":604},"\u201a":{"d":"90,219v121,-31,199,-81,199,-219r-193,0r0,-352r371,0r0,256v0,270,-129,412,-377,438r0,-123","w":557},"\u201e":{"d":"614,219v121,-31,199,-81,199,-219r-192,0r0,-352r370,0r0,256v0,270,-129,412,-377,438r0,-123xm90,219v121,-31,199,-81,199,-219r-193,0r0,-352r371,0r0,256v0,270,-129,412,-377,438r0,-123","w":1081},"\u2030":{"d":"2365,-530v-88,0,-163,75,-163,163v0,88,76,162,163,162v88,0,162,-74,162,-162v0,-88,-74,-163,-162,-163xm2365,41v-220,0,-407,-188,-407,-408v0,-219,188,-407,407,-407v220,0,408,187,408,407v0,221,-187,408,-408,408xm1444,-530v-89,0,-164,74,-164,163v0,88,76,162,164,162v87,0,162,-74,162,-162v0,-88,-75,-163,-162,-163xm1444,41v-221,0,-408,-187,-408,-408v0,-220,188,-407,408,-407v220,0,407,187,407,407v0,221,-186,408,-407,408xm442,41r844,-1493r180,0r-843,1493r-181,0xm465,-1208v-90,0,-164,74,-164,164v0,87,76,161,164,161v87,0,162,-74,162,-161v0,-88,-75,-164,-162,-164xm465,-637v-220,0,-408,-187,-408,-407v0,-221,187,-408,408,-408v221,0,407,187,407,408v0,220,-187,407,-407,407","w":2826},"\u00c2":{"d":"565,-575r322,0r-164,-508xm530,-1473r412,0r520,1473r-405,0r-90,-270r-492,0r-84,270r-391,0xm423,-1604r193,-368r256,0r192,368r-153,0r-166,-198r-168,198r-154,0","w":1462},"\u00ca":{"d":"145,0r0,-1473r1119,0r0,302r-742,0r0,260r678,0r0,295r-678,0r0,315r766,0r0,301r-1143,0xm380,-1604r193,-368r256,0r192,368r-153,0r-166,-198r-168,198r-154,0","w":1368},"\u00c1":{"d":"565,-575r322,0r-164,-508xm530,-1473r412,0r520,1473r-405,0r-90,-270r-492,0r-84,270r-391,0xm1050,-1972r-325,368r-154,0r192,-368r287,0","w":1462},"\u00cb":{"d":"145,0r0,-1473r1119,0r0,302r-742,0r0,260r678,0r0,295r-678,0r0,315r766,0r0,301r-1143,0xm757,-1653r0,-270r252,0r0,270r-252,0xm395,-1653r0,-270r250,0r0,270r-250,0","w":1368},"\u00c8":{"d":"145,0r0,-1473r1119,0r0,302r-742,0r0,260r678,0r0,295r-678,0r0,315r766,0r0,301r-1143,0xm397,-1972r287,0r192,368r-154,0","w":1368},"\u00cd":{"d":"154,0r0,-1473r376,0r0,1473r-376,0xm647,-1972r-325,368r-154,0r192,-368r287,0","w":684},"\u00ce":{"d":"154,0r0,-1473r376,0r0,1473r-376,0xm20,-1604r193,-368r256,0r192,368r-153,0r-166,-198r-168,198r-154,0","w":684},"\u00cf":{"d":"154,0r0,-1473r376,0r0,1473r-376,0xm397,-1653r0,-270r252,0r0,270r-252,0xm35,-1653r0,-270r250,0r0,270r-250,0","w":684},"\u00cc":{"d":"154,0r0,-1473r376,0r0,1473r-376,0xm37,-1972r287,0r192,368r-154,0","w":684},"\u00d3":{"d":"821,-1200v-250,0,-354,193,-354,465v0,273,104,465,354,465v250,0,357,-192,357,-465v0,-272,-106,-465,-357,-465xm821,41v-457,0,-737,-311,-737,-776v0,-465,280,-776,737,-776v457,0,742,312,742,776v0,464,-285,776,-742,776xm1128,-1972r-325,368r-154,0r192,-368r287,0","w":1645},"\u00d4":{"d":"821,-1200v-250,0,-354,193,-354,465v0,273,104,465,354,465v250,0,357,-192,357,-465v0,-272,-106,-465,-357,-465xm821,41v-457,0,-737,-311,-737,-776v0,-465,280,-776,737,-776v457,0,742,312,742,776v0,464,-285,776,-742,776xm501,-1604r193,-368r256,0r192,368r-153,0r-166,-198r-168,198r-154,0","w":1645},"\uf000":{"d":"860,-1214r-24,-2v-22,-205,151,-367,329,-398v2,21,0,34,2,62v11,155,-170,340,-307,338xm1272,-741v0,172,101,279,233,338v-76,165,-144,279,-205,343v-61,64,-129,95,-204,95v-57,0,-202,-71,-254,-66v-51,-6,-209,70,-258,66v-121,-10,-190,-85,-258,-176v-116,-156,-208,-360,-213,-596v-6,-278,179,-494,448,-494v72,0,222,68,279,68v52,0,208,-73,274,-70v168,9,272,64,359,164v-116,75,-201,163,-201,328","w":1618},"\u00d2":{"d":"821,-1200v-250,0,-354,193,-354,465v0,273,104,465,354,465v250,0,357,-192,357,-465v0,-272,-106,-465,-357,-465xm821,41v-457,0,-737,-311,-737,-776v0,-465,280,-776,737,-776v457,0,742,312,742,776v0,464,-285,776,-742,776xm518,-1972r287,0r192,368r-154,0","w":1645},"\u00da":{"d":"754,-272v186,0,245,-87,245,-281r0,-920r375,0r0,875v-1,238,-36,370,-155,481v-109,102,-259,158,-463,158v-298,0,-505,-123,-584,-345v-26,-73,-37,-172,-37,-294r0,-875r371,0r0,920v2,195,60,281,248,281xm1061,-1972r-325,368r-154,0r192,-368r287,0","w":1509},"\u00db":{"d":"754,-272v186,0,245,-87,245,-281r0,-920r375,0r0,875v-1,238,-36,370,-155,481v-109,102,-259,158,-463,158v-298,0,-505,-123,-584,-345v-26,-73,-37,-172,-37,-294r0,-875r371,0r0,920v2,195,60,281,248,281xm434,-1604r193,-368r256,0r192,368r-153,0r-166,-198r-168,198r-154,0","w":1509},"\u00d9":{"d":"754,-272v186,0,245,-87,245,-281r0,-920r375,0r0,875v-1,238,-36,370,-155,481v-109,102,-259,158,-463,158v-298,0,-505,-123,-584,-345v-26,-73,-37,-172,-37,-294r0,-875r371,0r0,920v2,195,60,281,248,281xm451,-1972r287,0r192,368r-154,0","w":1509},"\u0131":{"d":"125,0r0,-1087r354,0r0,1087r-354,0","w":604},"\u02c6":{"d":"190,-1219r193,-368r256,0r192,368r-153,0r-166,-198r-168,198r-154,0"},"\u02dc":{"d":"580,-1466v74,23,135,-10,145,-78r119,0v-20,88,-48,152,-82,193v-48,58,-130,72,-214,50v-52,-14,-100,-38,-159,-38v-53,0,-73,32,-90,77r-119,0v35,-149,89,-263,258,-242v49,6,97,24,142,38"},"\u00af":{"d":"205,-1319r0,-168r614,0r0,168r-614,0"},"\u02d8":{"d":"825,-1554v-16,204,-102,307,-313,307v-208,0,-302,-106,-315,-307r131,0v10,99,71,137,184,137v112,0,176,-36,182,-137r131,0"},"\u02d9":{"d":"383,-1264r0,-278r260,0r0,278r-260,0"},"\u02da":{"d":"512,-1585v-62,0,-115,53,-115,115v0,63,52,114,115,114v62,0,115,-53,115,-114v0,-62,-53,-115,-115,-115xm512,-1198v-149,0,-270,-123,-270,-272v0,-148,122,-271,270,-271v148,0,272,123,272,271v0,147,-124,272,-272,272"},"\u00b8":{"d":"563,485v-103,-2,-194,-21,-291,-47r0,-137v87,24,177,45,271,45v54,0,86,-20,86,-72v0,-70,-98,-64,-174,-61r0,-213r114,0r0,84v149,-5,248,54,248,192v0,142,-103,211,-254,209"},"\u02dd":{"d":"569,-1219r156,-368r254,0r-291,368r-119,0xm397,-1587r246,0r-252,368r-110,0"},"\u02db":{"d":"332,270v0,-137,88,-199,192,-270r109,0v-64,62,-119,104,-119,197v0,54,23,79,76,79r102,0r0,191r-74,0v-185,-2,-286,-33,-286,-197"},"\u02c7":{"d":"190,-1587r154,0r168,198r166,-198r153,0r-192,368r-256,0"},"\u0141":{"d":"156,0r0,-510r-107,74r-125,-178r232,-164r0,-695r381,0r0,474r337,-238r127,180r-464,324r0,414r710,0r0,319r-1091,0","w":1260,"k":{"\u201d":452,"y":36,"Y":235,"W":63,"V":159,"U":36,"T":167,"O":73,".":-57,"-":55}},"\u0142":{"d":"133,0r0,-522r-82,55r-108,-156r190,-133r0,-717r356,0r0,496r82,-57r109,155r-191,134r0,745r-356,0","w":623},"\u0160":{"d":"1319,-424v0,325,-280,467,-641,465v-382,-2,-581,-172,-604,-530r362,0v6,170,101,253,279,253v153,0,285,-69,226,-208v-8,-19,-24,-32,-42,-41v-78,-39,-377,-120,-471,-160v-180,-76,-324,-188,-324,-408v0,-303,260,-460,588,-460v331,0,578,173,578,485r-355,0v-16,-137,-94,-199,-247,-201v-103,-1,-205,44,-205,133v0,65,90,128,271,185v157,49,402,141,440,176v81,74,145,168,145,311xm376,-1972r154,0r168,198r166,-198r153,0r-192,368r-256,0","w":1397},"\u0161":{"d":"1133,-342v0,262,-231,377,-523,377v-295,0,-512,-114,-536,-367r356,0v9,101,77,144,191,144v86,0,161,-32,161,-107v0,-42,-56,-78,-168,-106v-164,-40,-354,-112,-424,-181v-49,-49,-75,-111,-75,-190v3,-241,209,-354,473,-354v285,0,479,84,508,321r-342,0v-15,-75,-67,-108,-158,-108v-76,-1,-133,26,-133,94v0,43,58,80,174,111v28,7,50,13,65,18v160,49,227,57,316,115v74,49,115,119,115,233xm280,-1587r154,0r168,198r166,-198r153,0r-192,368r-256,0","w":1202},"\u017d":{"d":"61,0r0,-295r752,-881r-723,0r0,-297r1190,0r0,297r-752,881r752,0r0,295r-1219,0xm344,-1972r154,0r168,198r166,-198r153,0r-192,368r-256,0","w":1331},"\u017e":{"d":"39,0r0,-262r541,-569r-506,0r0,-256r950,0r0,256r-537,569r555,0r0,262r-1003,0xm219,-1587r154,0r168,198r166,-198r153,0r-192,368r-256,0","w":1081},"\u00a6":{"d":"393,-408r240,0r0,758r-240,0r0,-758xm393,-1432r240,0r0,758r-240,0r0,-758"},"\u00d0":{"d":"1079,-735v0,-274,-82,-421,-338,-426r-204,0r0,268r270,0r0,217r-270,0r0,367r204,0v254,-4,338,-154,338,-426xm1462,-735v-2,490,-237,735,-725,735r-579,0r0,-676r-158,0r0,-217r158,0r0,-580r628,0v448,-1,678,278,676,738","w":1546,"k":{"Y":28,"W":-18,"V":16,"A":16,".":73,"-":-38}},"\u00f0":{"d":"68,-502v0,-331,238,-548,584,-489v29,5,55,17,79,30v-38,-63,-81,-122,-131,-178r-326,78r-34,-133r260,-59v-37,-46,-75,-84,-121,-123r168,-150v93,65,179,134,258,207r280,-63r37,131r-211,47v171,170,299,370,303,665v5,365,-211,578,-575,578v-343,0,-571,-205,-571,-541xm852,-485v0,-161,-66,-279,-213,-279v-148,0,-211,118,-211,279v0,161,63,276,211,276v148,0,213,-116,213,-276","w":1280},"\u00dd":{"d":"489,0r0,-555r-509,-918r423,0r271,594r270,-594r426,0r-514,918r0,555r-367,0xm981,-1972r-325,368r-154,0r192,-368r287,0","w":1350},"\u00fd":{"d":"231,162v115,-2,167,-13,172,-111v2,-24,-24,-100,-53,-176r-366,-962r383,0r204,741r209,-741r379,0r-434,1208v-37,101,-67,172,-94,211v-78,114,-168,110,-375,112r-94,0r0,-282r69,0xm880,-1587r-325,368r-154,0r192,-368r287,0","w":1151},"\u00de":{"d":"973,-768v0,-123,-74,-172,-203,-172r-246,0r0,352r250,0v132,0,199,-52,199,-180xm1343,-762v1,303,-200,472,-512,469r-307,0r0,293r-379,0r0,-1473r379,0r0,236r295,0v336,-1,523,149,524,475","w":1432},"\u00fe":{"d":"811,35v-156,0,-263,-69,-328,-170r0,571r-354,0r0,-1909r356,0r0,531v72,-106,161,-173,322,-174v288,-2,459,260,459,569v0,310,-170,582,-455,582xm897,-530v0,-173,-57,-301,-211,-301v-155,0,-207,126,-207,301v0,164,64,284,213,284v140,0,205,-129,205,-284","w":1327},"\u2212":{"d":"254,-729r1198,0r0,235r-1198,0r0,-235","w":1706},"\u00d7":{"d":"430,-1214r440,440r441,-440r162,161r-441,443r441,440r-162,162r-441,-441r-440,441r-162,-162r441,-440r-441,-443","w":1706},"\u00b9":{"d":"127,-1257v154,2,253,-28,266,-156r187,0r0,848r-236,0r0,-557r-217,0r0,-135","w":799},"\u00b2":{"d":"395,-1438v190,0,348,99,348,275v0,121,-55,169,-133,241v-44,40,-217,139,-254,187r379,0r0,170r-696,-1v18,-206,133,-291,286,-384v75,-45,123,-75,162,-132v54,-79,12,-197,-94,-192v-90,5,-125,63,-125,160r-219,0v-2,-198,144,-324,346,-324","w":797},"\u00b3":{"d":"754,-817v0,185,-167,276,-371,276v-206,0,-345,-95,-346,-290r223,0v3,82,48,126,133,126v71,0,127,-42,127,-110v-2,-94,-81,-120,-188,-117r0,-143v98,2,169,-20,170,-107v1,-61,-44,-99,-107,-98v-83,0,-120,39,-127,117r-217,-1v6,-184,146,-272,348,-272v175,0,326,74,326,230v0,92,-49,142,-115,182v86,33,144,97,144,207","w":797},"\u00bc":{"d":"1520,-301r0,-311r-226,311r226,0xm1516,0r0,-160r-381,0r0,-153r346,-478r254,0r0,486r96,0r0,145r-96,0r0,160r-219,0xm420,0r848,-1452r182,0r-848,1452r-182,0xm121,-1266v145,2,242,-26,256,-145r176,0r0,790r-225,0r0,-520r-207,0r0,-125","w":1866},"\u00bd":{"d":"1481,-815v178,0,334,92,334,256v0,115,-51,159,-127,227v-41,36,-209,129,-244,172r362,0r0,160r-665,0v10,-233,211,-311,360,-416v48,-34,88,-71,90,-135v3,-70,-42,-111,-112,-111v-85,1,-119,59,-119,150r-209,0v-2,-187,138,-303,330,-303xm420,0r848,-1452r182,0r-848,1452r-182,0xm121,-1266v145,2,242,-26,256,-145r176,0r0,790r-225,0r0,-520r-207,0r0,-125","w":1866},"\u00be":{"d":"1520,-301r0,-311r-226,311r226,0xm1516,0r0,-160r-381,0r0,-153r346,-478r254,0r0,486r96,0r0,145r-96,0r0,160r-219,0xm420,0r848,-1452r182,0r-848,1452r-182,0xm719,-856v0,175,-160,258,-354,258v-197,0,-326,-88,-330,-272r215,0v0,77,46,118,125,118v68,0,124,-38,123,-102v-1,-90,-80,-112,-183,-109r0,-133v93,2,162,-18,164,-100v0,-57,-42,-93,-102,-92v-78,0,-114,36,-121,108r-207,0v7,-174,140,-254,332,-254v165,0,311,69,311,215v0,86,-46,132,-108,170v79,32,135,90,135,193","w":1864},"\u20a3":{"d":"147,0r0,-1473r1057,0r0,306r-682,0r0,305r592,0r0,305r-592,0r0,557r-375,0xm2074,-762v-181,-22,-322,21,-337,192v-12,143,-7,398,-9,570r-354,0r0,-1087r342,0r0,190v72,-139,165,-212,358,-217r0,352","w":2114},"\u011e":{"d":"465,-733v0,259,124,465,362,467v178,1,301,-99,326,-254r-328,0r0,-283r664,0r0,803r-236,0r-30,-190v-102,142,-239,229,-465,229v-334,0,-532,-197,-626,-450v-35,-93,-50,-197,-50,-308v0,-467,297,-797,756,-797v351,0,587,192,641,494r-361,0v-44,-118,-138,-192,-291,-192v-235,0,-362,223,-362,481xm1122,-1939v-16,204,-102,307,-313,307v-208,0,-302,-106,-315,-307r131,0v10,99,71,137,184,137v112,0,176,-36,182,-137r131,0","w":1618},"\u011f":{"d":"524,-1116v171,1,265,66,344,174r0,-145r334,0r0,897v-3,222,3,309,-65,423v-82,138,-256,205,-480,205v-308,-1,-491,-91,-530,-346r356,0v20,68,75,96,164,96v164,0,207,-65,209,-237r0,-115v-71,107,-171,173,-336,174v-282,2,-454,-255,-454,-557v0,-310,169,-570,458,-569xm645,-840v-151,0,-211,123,-211,291v0,155,65,279,205,279v147,0,213,-120,213,-279v0,-170,-54,-291,-207,-291xm977,-1554v-16,204,-102,307,-313,307v-208,0,-302,-106,-315,-307r131,0v10,99,71,137,184,137v112,0,176,-36,182,-137r131,0","w":1325},"\u0130":{"d":"154,0r0,-1473r376,0r0,1473r-376,0xm213,-1649r0,-278r260,0r0,278r-260,0","w":684},"\u015e":{"d":"1319,-424v0,325,-280,467,-641,465v-382,-2,-581,-172,-604,-530r362,0v6,170,101,253,279,253v153,0,285,-69,226,-208v-8,-19,-24,-32,-42,-41v-78,-39,-377,-120,-471,-160v-180,-76,-324,-188,-324,-408v0,-303,260,-460,588,-460v331,0,578,173,578,485r-355,0v-16,-137,-94,-199,-247,-201v-103,-1,-205,44,-205,133v0,65,90,128,271,185v157,49,402,141,440,176v81,74,145,168,145,311xm749,485v-103,-2,-194,-21,-291,-47r0,-137v87,24,177,45,271,45v54,0,86,-20,86,-72v0,-70,-98,-64,-174,-61r0,-213r114,0r0,84v149,-5,248,54,248,192v0,142,-103,211,-254,209","w":1397},"\u015f":{"d":"1133,-342v0,262,-231,377,-523,377v-295,0,-512,-114,-536,-367r356,0v9,101,77,144,191,144v86,0,161,-32,161,-107v0,-42,-56,-78,-168,-106v-164,-40,-354,-112,-424,-181v-49,-49,-75,-111,-75,-190v3,-241,209,-354,473,-354v285,0,479,84,508,321r-342,0v-15,-75,-67,-108,-158,-108v-76,-1,-133,26,-133,94v0,43,58,80,174,111v28,7,50,13,65,18v160,49,227,57,316,115v74,49,115,119,115,233xm653,485v-103,-2,-194,-21,-291,-47r0,-137v87,24,177,45,271,45v54,0,86,-20,86,-72v0,-70,-98,-64,-174,-61r0,-213r114,0r0,84v149,-5,248,54,248,192v0,142,-103,211,-254,209","w":1202},"\u0106":{"d":"803,-274v173,2,275,-89,299,-242r350,0v-45,338,-277,557,-649,557v-433,0,-719,-324,-719,-766v0,-462,287,-784,741,-784v353,0,603,204,631,526r-354,0v-33,-136,-125,-213,-289,-213v-232,0,-342,210,-342,467v0,258,98,452,332,455xm1124,-1972r-325,368r-154,0r192,-368r287,0","w":1526},"\u0107":{"d":"614,-246v104,0,150,-62,168,-157r351,0v-33,270,-229,438,-531,438v-325,0,-539,-237,-539,-567v0,-356,210,-594,558,-594v292,0,493,158,514,424r-359,0v-18,-90,-62,-152,-158,-152v-146,0,-188,139,-188,311v1,172,37,297,184,297xm911,-1587r-325,368r-154,0r192,-368r287,0","w":1184},"\u010c":{"d":"803,-274v173,2,275,-89,299,-242r350,0v-45,338,-277,557,-649,557v-433,0,-719,-324,-719,-766v0,-462,287,-784,741,-784v353,0,603,204,631,526r-354,0v-33,-136,-125,-213,-289,-213v-232,0,-342,210,-342,467v0,258,98,452,332,455xm497,-1972r154,0r168,198r166,-198r153,0r-192,368r-256,0","w":1526},"\u010d":{"d":"614,-246v104,0,150,-62,168,-157r351,0v-33,270,-229,438,-531,438v-325,0,-539,-237,-539,-567v0,-356,210,-594,558,-594v292,0,493,158,514,424r-359,0v-18,-90,-62,-152,-158,-152v-146,0,-188,139,-188,311v1,172,37,297,184,297xm284,-1587r154,0r168,198r166,-198r153,0r-192,368r-256,0","w":1184},"\u0111":{"d":"522,-1120v156,0,263,67,328,170r0,-238r-326,0r0,-182r326,0r0,-103r354,0r0,103r133,0r0,182r-133,0r0,1190r-356,0r0,-145v-75,107,-160,173,-322,174v-287,2,-458,-262,-458,-570v0,-310,169,-581,454,-581xm643,-842v-141,0,-207,130,-207,287v0,172,57,301,211,301v154,0,207,-127,207,-301v0,-164,-62,-287,-211,-287","w":1327},"\u00ad":{"d":"96,-395r0,-297r512,0r0,297r-512,0","w":707},"\u2219":{"d":"301,-520v-102,0,-184,-85,-184,-187v0,-101,82,-186,184,-186v101,0,186,85,186,186v0,102,-84,187,-186,187","w":604},"\u20ac":{"d":"877,-1016v-16,-104,-59,-168,-168,-168v-135,0,-170,120,-185,269r410,0r-43,131r-375,0r-2,131r332,0r-43,131r-281,0v5,104,22,180,50,226v28,46,71,69,128,69v113,-2,166,-78,177,-189r331,0v-43,281,-213,455,-522,455v-330,0,-483,-236,-522,-561r-176,0r45,-131r119,0r1,-131r-155,0r43,-131r125,0v44,-329,198,-537,543,-537v291,0,469,172,505,436r-337,0","w":1208}}});
